|--- uniformity_cell_shape == 0
|   |--- normal_nucleoli == 0 
|   |   |--- bare_nuclei == 0
|   |   |   |--- mitosis == 0
|   |   |   |   |--- clump_thickness == 0
|   |   |   |   |   |--- class: 2
|   |   |   |   |--- clump_thickness == 1 or clump_thickness == 2
|   |   |   |   |   |--- class: 2
|   |   |   |--- mitosis == 2
|   |   |   |   |--- clump_thickness == 0 or clump_thickness == 1
|   |   |   |   |   |--- class: 2
|   |   |   |   |--- clump_thickness == 2
|   |   |   |   |   |--- class: 4
|   |   |--- bare_nuclei == 2
|   |   |   |--- clump_thickness == 0 or clump_thickness == 1
|   |   |   |   |--- bland_chromatin == 0
|   |   |   |   |   |--- class: 2
|   |   |   |   |--- bland_chromatin == 2
|   |   |   |   |   |--- class: 4
|   |   |   |--- clump_thickness == 2
|   |   |   |   |--- class: 4
|   |--- normal_nucleoli == 1 or normal_nucleoli == 2
|   |   |--- clump_thickness == 0 or clump_thickness == 1
|   |   |   |--- uniformity_cell_size == 0
|   |   |   |   |--- clump_thickness == 0
|   |   |   |   |   |--- class: 2
|   |   |   |   |--- clump_thickness 1 or clump_thickness == 2
|   |   |   |   |   |--- class: 4
|   |   |   |--- uniformity_cell_size == 2
|   |   |   |   |--- class: 4
|   |   |--- clump_thickness == 2
|   |   |   |--- class: 4
|--- uniformity_cell_shape == 2
|   |--- uniformity_cell_size == 0
|   |   |--- bare_nuclei  == 0
|   |   |   |--- clump_thickness == 0 or clump_thickness == 1
|   |   |   |   |--- normal_nucleoli == 0 or normal_nucleoli == 1 
|   |   |   |   |   |--- class: 2
|   |   |   |   |--- normal_nucleoli == 2
|   |   |   |   |   |--- class: 4
|   |   |   |--- clump_thickness == 2
|   |   |   |   |--- class: 4
|   |   |--- bare_nuclei == 2
|   |   |   |--- class: 4
|   |--- uniformity_cell_size == 2
|   |   |--- class: 4



70 - 30 test train split
test accuracy 0.9317073170731708
train accuracy 0.9832635983263598
